{
  "generator": {
    "g_var_0_pure_quantum_generator_weights:0": [
      {
        "epoch": 0,
        "values": [
          [
            0.08739452809095383,
            -0.11548572033643723,
            -0.05932450294494629,
            -0.05594208836555481,
            -0.07901427894830704,
            0.016044314950704575,
            0.010700383223593235,
            0.03670484945178032,
            0.0052989814430475235,
            0.02430199272930622,
            -0.12153972685337067,
            0.0777677521109581,
            -0.03267082944512367,
            -0.10572856664657593,
            0.19505003094673157,
            0.08059199899435043,
            0.04542729631066322,
            -0.29282146692276,
            0.11870807409286499,
            -0.06374604254961014,
            0.18956944346427917,
            0.03725195676088333,
            -0.012608776800334454,
            0.025772452354431152,
            0.08540552109479904,
            -0.029861366376280785,
            -0.11784060299396515,
            -0.09490063041448593,
            0.06534156948328018,
            -0.04497431591153145,
            -0.04914391040802002,
            -0.12005794048309326,
            0.02161947265267372,
            0.1261902153491974,
            -0.12158896028995514,
            0.10751912742853165,
            0.22105184197425842,
            0.08920767903327942,
            -0.1379518359899521,
            -0.001051784260198474,
            -0.0858493372797966,
            0.004660238977521658,
            0.0404263436794281,
            -0.08278458565473557,
            0.05764074996113777,
            -0.05847508832812309
          ],
          [
            -0.11259230226278305,
            -0.09661614149808884,
            -0.08795521408319473,
            -0.002483861055225134,
            0.11432423442602158,
            -0.10777882486581802,
            -0.09119486808776855,
            -0.07991722226142883,
            -0.009303578175604343,
            0.07457327842712402,
            0.010660621337592602,
            0.09641479700803757,
            0.07773969322443008,
            0.023316986858844757,
            -0.11986058205366135,
            -0.10140710324048996,
            0.05853920057415962,
            -0.14060617983341217,
            0.023393480107188225,
            -0.05899885296821594,
            0.1109560951590538,
            -0.042579807341098785,
            -0.002904196036979556,
            0.07874544709920883,
            -0.014491960406303406,
            -0.07858335226774216,
            -0.0810844898223877,
            0.13413386046886444,
            0.12404680252075195,
            0.13626854121685028,
            -0.03490535542368889,
            0.06031195446848869,
            -0.11097681522369385,
            0.09187760204076767,
            0.09620150923728943,
            -0.15681521594524384,
            0.0726751834154129,
            0.008563515730202198,
            -0.06283292174339294,
            0.040199752897024155,
            0.026584375649690628,
            -0.26603591442108154,
            0.12853482365608215,
            -0.12994465231895447,
            0.17436113953590393,
            -0.09387675672769547
          ]
        ],
        "mean": -0.004728682804852724,
        "std": 0.09855809062719345,
        "min": -0.29282146692276,
        "max": 0.22105184197425842,
        "norm": 0.9464234113693237
      },
      {
        "epoch": 1,
        "values": [
          [
            0.10059647262096405,
            -0.09166715294122696,
            -0.03647034987807274,
            -0.04061954841017723,
            -0.055205341428518295,
            0.03906000405550003,
            -0.010722670704126358,
            0.013210656121373177,
            0.02829652465879917,
            0.04555075243115425,
            -0.14485639333724976,
            0.05400726571679115,
            -0.02681707963347435,
            -0.12771710753440857,
            0.17123517394065857,
            0.09792889654636383,
            0.04533849656581879,
            -0.26912403106689453,
            0.09575064480304718,
            -0.047757338732481,
            0.21330110728740692,
            0.06017908826470375,
            -0.00014336887397803366,
            0.04950418323278427,
            0.10831854492425919,
            -0.008556695654988289,
            -0.09413095563650131,
            -0.10906114429235458,
            0.08314121514558792,
            -0.02128954976797104,
            -0.06565015017986298,
            -0.1368609517812729,
            -0.00039054080843925476,
            0.10251135379076004,
            -0.09937440603971481,
            0.1305125206708908,
            0.24373474717140198,
            0.06569917500019073,
            -0.11747917532920837,
            0.0025402093306183815,
            -0.0622052364051342,
            0.028053043410182,
            0.026402004063129425,
            -0.10543504357337952,
            0.08100764453411102,
            -0.042323943227529526
          ],
          [
            -0.1358634978532791,
            -0.07257569581270218,
            -0.07108549773693085,
            -0.02568955346941948,
            0.13833943009376526,
            -0.08603598177433014,
            -0.0692409798502922,
            -0.08309512585401535,
            -0.03162487968802452,
            0.0920928493142128,
            -0.011610891669988632,
            0.07413388043642044,
            0.058498580008745193,
            0.011435001157224178,
            -0.09627982974052429,
            -0.08250187337398529,
            0.050408124923706055,
            -0.11690158396959305,
            0.0009918807772919536,
            -0.08205470442771912,
            0.13495241105556488,
            -0.0201368760317564,
            -0.025954294949769974,
            0.10265124589204788,
            0.008090834133327007,
            -0.05645556002855301,
            -0.058147408068180084,
            0.11341117322444916,
            0.1318044811487198,
            0.11334698647260666,
            -0.05154113098978996,
            0.03997963294386864,
            -0.09929017722606659,
            0.06799529492855072,
            0.11856409162282944,
            -0.134196937084198,
            0.0964687317609787,
            -0.01489836722612381,
            -0.04250060021877289,
            0.028513086959719658,
            0.05046667531132698,
            -0.27488428354263306,
            0.1285381019115448,
            -0.12996205687522888,
            0.1743588000535965,
            -0.09387747943401337
          ]
        ],
        "mean": -0.0006450272048823535,
        "std": 0.09712588787078857,
        "min": -0.27488428354263306,
        "max": 0.24373474717140198,
        "norm": 0.9316193461418152
      },
      {
        "epoch": 2,
        "values": [
          [
            0.11293142288923264,
            -0.07049741595983505,
            -0.018957385793328285,
            -0.027330737560987473,
            -0.034145887941122055,
            0.056957345455884933,
            -0.02624906785786152,
            -0.006952344439923763,
            0.045427415519952774,
            0.06049763038754463,
            -0.16373230516910553,
            0.030748795717954636,
            -0.016921399161219597,
            -0.14395104348659515,
            0.14909043908119202,
            0.10608349740505219,
            0.04378795996308327,
            -0.24765168130397797,
            0.07829338312149048,
            -0.034234270453453064,
            0.23409409821033478,
            0.0775834247469902,
            0.009371746331453323,
            0.07033301889896393,
            0.12564240396022797,
            0.006746731698513031,
            -0.0727454423904419,
            -0.11807467043399811,
            0.08833674341440201,
            0.0020443019457161427,
            -0.07491391152143478,
            -0.13638003170490265,
            -0.014954241923987865,
            0.08130702376365662,
            -0.08189824968576431,
            0.1475108563899994,
            0.2581464946269989,
            0.0460640974342823,
            -0.09581810981035233,
            -0.0010259797563776374,
            -0.04119120165705681,
            0.04844684898853302,
            0.02744111232459545,
            -0.12117253243923187,
            0.1021057665348053,
            -0.04485291615128517
          ],
          [
            -0.154115691781044,
            -0.049539171159267426,
            -0.064425528049469,
            -0.04378679767251015,
            0.16087014973163605,
            -0.07166963815689087,
            -0.051763106137514114,
            -0.09151997417211533,
            -0.04773256927728653,
            0.10690627247095108,
            -0.02748211845755577,
            0.05806637555360794,
            0.05498211458325386,
            0.0017455226043239236,
            -0.07539749145507812,
            -0.07159102708101273,
            0.04553607478737831,
            -0.09559151530265808,
            -0.0079103484749794,
            -0.09972044825553894,
            0.1569148302078247,
            -0.005753695033490658,
            -0.043686773627996445,
            0.12416361272335052,
            0.02294825203716755,
            -0.03814530745148659,
            -0.03907841816544533,
            0.10025779902935028,
            0.1375185251235962,
            0.08883234858512878,
            -0.04454934224486351,
            0.03364991024136543,
            -0.09384909272193909,
            0.0457378551363945,
            0.136233851313591,
            -0.12195154279470444,
            0.11764058470726013,
            -0.034347210079431534,
            -0.03617088124155998,
            0.023072002455592155,
            0.0727241262793541,
            -0.2592017650604248,
            0.12853901088237762,
            -0.12998324632644653,
            0.1743568629026413,
            -0.0938776433467865
          ]
        ],
        "mean": 0.00340432021766901,
        "std": 0.09771960228681564,
        "min": -0.2592017650604248,
        "max": 0.2581464946269989,
        "norm": 0.9378620982170105
      },
      {
        "epoch": 3,
        "values": [
          [
            0.13281641900539398,
            -0.0565071664750576,
            -0.009231146425008774,
            -0.007657994516193867,
            -0.020355092361569405,
            0.0667850449681282,
            -0.033775340765714645,
            -0.02041567862033844,
            0.05440172180533409,
            0.06904468685388565,
            -0.17479687929153442,
            0.01203224528580904,
            -0.006307284347712994,
            -0.15294457972049713,
            0.13119114935398102,
            0.10756883025169373,
            0.04149133712053299,
            -0.23006539046764374,
            0.06457430869340897,
            -0.016419976949691772,
            0.24823513627052307,
            0.08649427443742752,
            0.02426454983651638,
            0.08456576615571976,
            0.13449619710445404,
            0.016283906996250153,
            -0.056717272847890854,
            -0.12455759197473526,
            0.07882710546255112,
            0.02154623158276081,
            -0.0808057188987732,
            -0.12584811449050903,
            -0.023226803168654442,
            0.06497929245233536,
            -0.06676682829856873,
            0.15537874400615692,
            0.2652587294578552,
            0.03370901942253113,
            -0.07607016712427139,
            -0.005677293054759502,
            -0.025025412440299988,
            0.06291251629590988,
            0.032877929508686066,
            -0.13129277527332306,
            0.11884071677923203,
            -0.03191773593425751
          ],
          [
            -0.1656521111726761,
            -0.0316019207239151,
            -0.059430863708257675,
            -0.055241383612155914,
            0.17795716226100922,
            -0.06305597722530365,
            -0.0379534475505352,
            -0.1095830425620079,
            -0.05689289793372154,
            0.1206369698047638,
            -0.02193479984998703,
            0.04912136122584343,
            0.06286831200122833,
            -0.00010291961370967329,
            -0.05870836228132248,
            -0.06653916090726852,
            0.042287085205316544,
            -0.07892943173646927,
            -0.0026949122548103333,
            -0.1107320785522461,
            0.17181335389614105,
            -0.0017220624722540379,
            -0.05482351407408714,
            0.13852545619010925,
            0.026590639725327492,
            -0.02279786951839924,
            -0.025853220373392105,
            0.0937289372086525,
            0.14282472431659698,
            0.06826871633529663,
            -0.03669232130050659,
            0.03562772274017334,
            -0.085877425968647,
            0.027748901396989822,
            0.1507478654384613,
            -0.12651969492435455,
            0.13291430473327637,
            -0.046479955315589905,
            -0.03814869001507759,
            0.015100343152880669,
            0.09071309119462967,
            -0.2669163644313812,
            0.12854041159152985,
            -0.1299831122159958,
            0.174356147646904,
            -0.09387758374214172
          ]
        ],
        "mean": 0.0068893469870090485,
        "std": 0.09956152737140656,
        "min": -0.2669163644313812,
        "max": 0.2652587294578552,
        "norm": 0.9572441577911377
      },
      {
        "epoch": 4,
        "values": [
          [
            0.14596745371818542,
            -0.050721753388643265,
            -0.011974552646279335,
            0.0052624233067035675,
            -0.014928031712770462,
            0.06355609744787216,
            -0.03196968883275986,
            -0.027771443128585815,
            0.05734584480524063,
            0.07235907018184662,
            -0.1797243356704712,
            0.0068888310343027115,
            -0.010474210605025291,
            -0.1505252867937088,
            0.11921887844800949,
            0.10803524404764175,
            0.02957170642912388,
            -0.21621693670749664,
            0.05143570154905319,
            -0.0007964540272951126,
            0.25564947724342346,
            0.08248414844274521,
            0.04009060189127922,
            0.09222397953271866,
            0.13013356924057007,
            0.0198792964220047,
            -0.04630281403660774,
            -0.13689583539962769,
            0.07532337307929993,
            0.03647349402308464,
            -0.09140407294034958,
            -0.12743763625621796,
            -0.025731049478054047,
            0.05376129597425461,
            -0.06042085587978363,
            0.1519254595041275,
            0.2663576304912567,
            0.027816902846097946,
            -0.07237476110458374,
            -0.009685086086392403,
            -0.01423407718539238,
            0.07103478163480759,
            0.036570120602846146,
            -0.14345552027225494,
            0.12888239324092865,
            -0.012721322476863861
          ],
          [
            -0.1643604189157486,
            -0.019436871632933617,
            -0.05921398475766182,
            -0.05394502729177475,
            0.18902219831943512,
            -0.06303045153617859,
            -0.03772394359111786,
            -0.126853808760643,
            -0.05537032335996628,
            0.12423134595155716,
            -0.004192391410470009,
            0.049600861966609955,
            0.06275124102830887,
            -0.009096717461943626,
            -0.04531779885292053,
            -0.06263174116611481,
            0.030364125967025757,
            -0.06697480380535126,
            0.006101103033870459,
            -0.1104302778840065,
            0.17902587354183197,
            -0.007518553640693426,
            -0.05458887293934822,
            0.14542824029922485,
            0.02124209702014923,
            -0.020524052903056145,
            -0.016108909621834755,
            0.09176743030548096,
            0.146023228764534,
            0.055975642055273056,
            -0.03956558555364609,
            0.03311615437269211,
            -0.07995591312646866,
            0.014997726306319237,
            0.15574043989181519,
            -0.13858641684055328,
            0.1415051370859146,
            -0.05229523405432701,
            -0.03563712164759636,
            0.009178823791444302,
            0.1034642681479454,
            -0.2908935248851776,
            0.12854096293449402,
            -0.12997044622898102,
            0.17435552179813385,
            -0.09387746453285217
          ]
        ],
        "mean": 0.007791455835103989,
        "std": 0.10120832175016403,
        "min": -0.2908935248851776,
        "max": 0.2663576304912567,
        "norm": 0.9736285209655762
      },
      {
        "epoch": 5,
        "values": [
          [
            0.15781287848949432,
            -0.04794169217348099,
            -0.00973585620522499,
            0.01678699627518654,
            -0.012344281189143658,
            0.06606953591108322,
            -0.03696383163332939,
            -0.03159525990486145,
            0.059344202280044556,
            0.07213783264160156,
            -0.181826651096344,
            -0.0002871650503948331,
            -0.01901506818830967,
            -0.15319789946079254,
            0.11160391569137573,
            0.0914561077952385,
            0.024612460285425186,
            -0.20571982860565186,
            0.03805859386920929,
            0.007920300588011742,
            0.25952276587486267,
            0.08452092111110687,
            0.04753948375582695,
            0.09610806405544281,
            0.13263949751853943,
            0.02078215405344963,
            -0.04006308317184448,
            -0.14170771837234497,
            0.05778449773788452,
            0.04694686830043793,
            -0.09619909524917603,
            -0.12689998745918274,
            -0.03164762631058693,
            0.04830239340662956,
            -0.052106548100709915,
            0.15480215847492218,
            0.26834774017333984,
            0.025517528876662254,
            -0.0707186833024025,
            -0.007823589257895947,
            -0.007832702249288559,
            0.07466103136539459,
            0.02614344283938408,
            -0.14993205666542053,
            0.13751213252544403,
            -2.925685839727521e-05
          ],
          [
            -0.16951848566532135,
            -0.012090411968529224,
            -0.0570877268910408,
            -0.0591004379093647,
            0.19588439166545868,
            -0.060700032860040665,
            -0.03337807580828667,
            -0.1382261961698532,
            -0.056341249495744705,
            0.12517085671424866,
            0.015150850638747215,
            0.04839622601866722,
            0.06142166256904602,
            -0.012222821824252605,
            -0.03441827371716499,
            -0.07613137364387512,
            0.025785816833376884,
            -0.0584106370806694,
            0.015558851882815361,
            -0.11576846987009048,
            0.18195201456546783,
            -0.00991955865174532,
            -0.0598946213722229,
            0.1482294797897339,
            0.018289171159267426,
            -0.016918089240789413,
            -0.00862942822277546,
            0.09003761410713196,
            0.1433238834142685,
            0.04934760555624962,
            -0.03885338827967644,
            0.027110686525702477,
            -0.07772212475538254,
            0.0065325405448675156,
            0.16351774334907532,
            -0.14468348026275635,
            0.14524270594120026,
            -0.05469278618693352,
            -0.02963164821267128,
            0.006945021916180849,
            0.11192945390939713,
            -0.3144022226333618,
            0.12855450809001923,
            -0.12997785210609436,
            0.1743554025888443,
            -0.09387706220149994
          ]
        ],
        "mean": 0.007863972336053848,
        "std": 0.10295692086219788,
        "min": -0.3144022226333618,
        "max": 0.26834774017333984,
        "norm": 0.9904046058654785
      },
      {
        "epoch": 6,
        "values": [
          [
            0.15782244503498077,
            -0.04713548347353935,
            -0.005647285841405392,
            0.0166612658649683,
            -0.01166062243282795,
            0.07041531801223755,
            -0.0462576188147068,
            -0.03352733701467514,
            0.060327280312776566,
            0.06995823234319687,
            -0.18269439041614532,
            -0.004556775093078613,
            -0.019890371710062027,
            -0.15450870990753174,
            0.10724906623363495,
            0.08197531849145889,
            0.017124829813838005,
            -0.19769105315208435,
            0.026219625025987625,
            0.009147227741777897,
            0.26141732931137085,
            0.08991986513137817,
            0.04780669882893562,
            0.09802137315273285,
            0.13805420696735382,
            0.0198188666254282,
            -0.03647293895483017,
            -0.1452210545539856,
            0.04327986389398575,
            0.054782405495643616,
            -0.10087542980909348,
            -0.13264885544776917,
            -0.040182940661907196,
            0.0464630201458931,
            -0.049073126167058945,
            0.15700377523899078,
            0.2703317701816559,
            0.024876141920685768,
            -0.06938700377941132,
            -0.008522337302565575,
            -0.004229152575135231,
            0.07606635242700577,
            0.02088252268731594,
            -0.15945906937122345,
            0.14364293217658997,
            0.007717751897871494
          ],
          [
            -0.17270797491073608,
            -0.0070569165982306,
            -0.043076418340206146,
            -0.06226225569844246,
            0.20053650438785553,
            -0.04861284792423248,
            -0.030301902443170547,
            -0.14393116533756256,
            -0.05928882211446762,
            0.12603256106376648,
            0.030117979273200035,
            0.04569290205836296,
            0.05570155382156372,
            -0.019457438960671425,
            -0.025315837934613228,
            -0.08430588990449905,
            0.017883820459246635,
            -0.05198022350668907,
            0.024133294820785522,
            -0.11962918192148209,
            0.18270456790924072,
            -0.003231228329241276,
            -0.06373441219329834,
            0.14893220365047455,
            0.023683715611696243,
            -0.015177056193351746,
            -0.0026573853101581335,
            0.08775685727596283,
            0.14182059466838837,
            0.04625416919589043,
            -0.03469868004322052,
            0.028925450518727303,
            -0.08026130497455597,
            0.0007945008692331612,
            0.16655664145946503,
            -0.14549772441387177,
            0.14655348658561707,
            -0.05550418794155121,
            -0.03144640848040581,
            0.009484220296144485,
            0.11766750365495682,
            -0.3348478078842163,
            0.1285623162984848,
            -0.12999282777309418,
            0.17435520887374878,
            -0.09387683868408203
          ]
        ],
        "mean": 0.007746100425720215,
        "std": 0.10440543293952942,
        "min": -0.3348478078842163,
        "max": 0.2703317701816559,
        "norm": 1.0041741132736206
      },
      {
        "epoch": 7,
        "values": [
          [
            0.16371695697307587,
            -0.04706256464123726,
            -0.00348311266861856,
            0.022665541619062424,
            -0.011707104742527008,
            0.07288654148578644,
            -0.038774050772190094,
            -0.03474126383662224,
            0.060978516936302185,
            0.07385299354791641,
            -0.1831168532371521,
            -0.010506720282137394,
            -0.0067027537152171135,
            -0.1580868661403656,
            0.10401315242052078,
            0.08818608522415161,
            0.0224424060434103,
            -0.19124969840049744,
            0.015791531652212143,
            0.013715039938688278,
            0.26248136162757874,
            0.092960886657238,
            0.052542295306921005,
            0.09907190501689911,
            0.14119142293930054,
            0.022599996998906136,
            -0.03400636091828346,
            -0.14106610417366028,
            0.05235527083277702,
            0.06004517525434494,
            -0.09656433016061783,
            -0.12089192122220993,
            -0.04087407886981964,
            0.04591862112283707,
            -0.04512907192111015,
            0.15841682255268097,
            0.27017563581466675,
            0.024900754913687706,
            -0.05774812400341034,
            -0.0073243966326117516,
            -0.0015391294145956635,
            0.07653427869081497,
            0.032672178000211716,
            -0.15653564035892487,
            0.15193305909633636,
            0.010447924956679344
          ],
          [
            -0.17423032224178314,
            -0.0031695424113422632,
            -0.039096999913454056,
            -0.06411390006542206,
            0.2041299194097519,
            -0.04412783309817314,
            -0.024938009679317474,
            -0.14740799367427826,
            -0.06450154632329941,
            0.1371002346277237,
            0.043237119913101196,
            0.04112754762172699,
            0.06733012199401855,
            -0.014220553450286388,
            -0.017749588936567307,
            -0.07819274812936783,
            0.023548999801278114,
            -0.04693193733692169,
            0.03244263678789139,
            -0.1214400976896286,
            0.1826964020729065,
            0.001413946389220655,
            -0.06598880141973495,
            0.14890101552009583,
            0.027098359540104866,
            -0.0026928549632430077,
            0.001319361850619316,
            0.0862426683306694,
            0.15504910051822662,
            0.04280833527445793,
            -0.0289547611027956,
            0.040745846927165985,
            -0.07196006178855896,
            -0.003420562483370304,
            0.17035305500030518,
            -0.14779919385910034,
            0.1465430110692978,
            -0.05571617931127548,
            -0.04326679930090904,
            0.0011829782743006945,
            0.12188257277011871,
            -0.35176166892051697,
            0.12856850028038025,
            -0.12999333441257477,
            0.1743556410074234,
            -0.09387718886137009
          ]
        ],
        "mean": 0.010303381830453873,
        "std": 0.10553967952728271,
        "min": -0.35176166892051697,
        "max": 0.27017563581466675,
        "norm": 1.0171135663986206
      },
      {
        "epoch": 8,
        "values": [
          [
            0.1695031076669693,
            -0.047207776457071304,
            0.0008969738846644759,
            0.028635049238801003,
            -0.012035045772790909,
            0.07758323103189468,
            -0.02829720638692379,
            -0.036293644458055496,
            0.06119678542017937,
            0.07948306202888489,
            -0.18356440961360931,
            -0.007449397351592779,
            -0.003429535310715437,
            -0.1534147560596466,
            0.09945692121982574,
            0.08652283996343613,
            0.022380158305168152,
            -0.18470564484596252,
            0.006527921184897423,
            0.01957475021481514,
            0.263386607170105,
            0.09530113637447357,
            0.05888621136546135,
            0.09992041438817978,
            0.1437181830406189,
            0.025837065652012825,
            -0.03119197115302086,
            -0.13407304883003235,
            0.06025981903076172,
            0.06463296711444855,
            -0.08923538774251938,
            -0.11754428595304489,
            -0.04065492004156113,
            0.046205341815948486,
            -0.04259052500128746,
            0.15971152484416962,
            0.26968663930892944,
            0.025133414193987846,
            -0.05420636013150215,
            -0.011538990773260593,
            0.00021260709036141634,
            0.07656238228082657,
            0.030020898208022118,
            -0.15831898152828217,
            0.15765874087810516,
            0.006820169277489185
          ],
          [
            -0.17334958910942078,
            0.00017292017582803965,
            -0.035436227917671204,
            -0.06327767670154572,
            0.2072150707244873,
            -0.03984282165765762,
            -0.026162199676036835,
            -0.14891119301319122,
            -0.06877343356609344,
            0.13807599246501923,
            0.0514608696103096,
            0.03704756125807762,
            0.07122378051280975,
            -0.01644103042781353,
            -0.011110515333712101,
            -0.07859483361244202,
            0.023859942331910133,
            -0.04248243570327759,
            0.03838730603456497,
            -0.1215633749961853,
            0.18252180516719818,
            0.0035972888581454754,
            -0.06621626019477844,
            0.14873641729354858,
            0.02818935178220272,
            -0.0003000774304382503,
            0.005399247631430626,
            0.08632371574640274,
            0.1580912172794342,
            0.040970757603645325,
            -0.022238070145249367,
            0.04458348825573921,
            -0.07280726730823517,
            -0.006840411573648453,
            0.17272795736789703,
            -0.14940083026885986,
            0.1460685282945633,
            -0.055737387388944626,
            -0.04710443690419197,
            0.0020301914773881435,
            0.12530243396759033,
            -0.3664429485797882,
            0.12857204675674438,
            -0.13001765310764313,
            0.17435626685619354,
            -0.093877412378788
          ]
        ],
        "mean": 0.01171683706343174,
        "std": 0.10622453689575195,
        "min": -0.3664429485797882,
        "max": 0.26968663930892944,
        "norm": 1.0250494480133057
      },
      {
        "epoch": 9,
        "values": [
          [
            0.16842329502105713,
            -0.048725273460149765,
            -0.0022837091237306595,
            0.027227826416492462,
            -0.013676884584128857,
            0.07409749925136566,
            -0.03474724665284157,
            -0.036652594804763794,
            0.06110890954732895,
            0.07116139680147171,
            -0.18357926607131958,
            -0.005392481107264757,
            -0.015079444274306297,
            -0.15094152092933655,
            0.09844638407230377,
            0.0829961895942688,
            0.019265983253717422,
            -0.17789509892463684,
            -0.00022295024245977402,
            0.019380105659365654,
            0.26390087604522705,
            0.08985573053359985,
            0.06056800112128258,
            0.10053438693284988,
            0.13799536228179932,
            0.021132830530405045,
            -0.030466947704553604,
            -0.1365116685628891,
            0.05502093583345413,
            0.067201167345047,
            -0.0918847918510437,
            -0.12461725622415543,
            -0.038216203451156616,
            0.045285798609256744,
            -0.04614163935184479,
            0.15510809421539307,
            0.2679136097431183,
            0.025405704975128174,
            -0.06469190865755081,
            -0.009986888617277145,
            0.0019543918315321207,
            0.07661052793264389,
            0.02196566015481949,
            -0.15802763402462006,
            0.16111059486865997,
            0.0021025282330811024
          ],
          [
            -0.16738004982471466,
            0.00333070894703269,
            -0.03962136432528496,
            -0.05712597817182541,
            0.21000199019908905,
            -0.04339009150862694,
            -0.03479225933551788,
            -0.14922361075878143,
            -0.067176453769207,
            0.12918947637081146,
            0.05554363131523132,
            0.03785533830523491,
            0.0641884058713913,
            -0.017930615693330765,
            -0.004473394714295864,
            -0.08073467761278152,
            0.021676331758499146,
            -0.038490429520606995,
            0.04331337288022041,
            -0.1165812537074089,
            0.1823900192975998,
            -0.0003549496177583933,
            -0.060842081904411316,
            0.14861471951007843,
            0.024980437010526657,
            -0.00964327808469534,
            0.009228479117155075,
            0.08601092547178268,
            0.1487237513065338,
            0.04026498645544052,
            -0.020539116114377975,
            0.03359758108854294,
            -0.07630626857280731,
            -0.009738205000758171,
            0.1683666706085205,
            -0.1515655517578125,
            0.14559923112392426,
            -0.055718835443258286,
            -0.0361185297369957,
            0.005529198329895735,
            0.1282002180814743,
            -0.3800410032272339,
            0.12857376039028168,
            -0.13002115488052368,
            0.17435666918754578,
            -0.09387769550085068
          ]
        ],
        "mean": 0.010368277318775654,
        "std": 0.10609034448862076,
        "min": -0.3800410032272339,
        "max": 0.2679136097431183,
        "norm": 1.0224308967590332
      },
      {
        "epoch": 10,
        "values": [
          [
            0.1737760603427887,
            -0.05002523213624954,
            -0.010691866278648376,
            0.03206362575292587,
            -0.015004623681306839,
            0.06559421867132187,
            -0.040853630751371384,
            -0.03617549315094948,
            0.06107274442911148,
            0.06382375210523605,
            -0.18336306512355804,
            -0.010869666002690792,
            -0.022054463624954224,
            -0.1559796780347824,
            0.10005328804254532,
            0.0843997597694397,
            0.022108975797891617,
            -0.1710498332977295,
            -0.005144194699823856,
            0.023054949939250946,
            0.2646970748901367,
            0.07929172366857529,
            0.06699410080909729,
            0.10137046128511429,
            0.12750576436519623,
            0.022060997784137726,
            -0.03109421394765377,
            -0.1431383341550827,
            0.059631768614053726,
            0.0668761357665062,
            -0.09783899784088135,
            -0.11894888430833817,
            -0.029295219108462334,
            0.042600367218256,
            -0.04490337893366814,
            0.15065117180347443,
            0.26501691341400146,
            0.025534991174936295,
            -0.07005023211240768,
            -0.0037998799234628677,
            0.003968029748648405,
            0.07702755182981491,
            0.020164066925644875,
            -0.14911676943302155,
            0.16312316060066223,
            0.0003501509199850261
          ],
          [
            -0.1624290496110916,
            0.006214379798620939,
            -0.055575016885995865,
            -0.05238981544971466,
            0.21259461343288422,
            -0.057596251368522644,
            -0.04151659086346626,
            -0.14900942146778107,
            -0.05940009281039238,
            0.12510573863983154,
            0.0553167499601841,
            0.044332727789878845,
            0.06950376182794571,
            -0.01210530661046505,
            0.0027160830795764923,
            -0.07766397297382355,
            0.026374327018857002,
            -0.03502362221479416,
            0.048627059906721115,
            -0.11275114864110947,
            0.18268604576587677,
            -0.011980298906564713,
            -0.056964125484228134,
            0.14889590442180634,
            0.01499645784497261,
            -0.01164514571428299,
            0.011037856340408325,
            0.08610010147094727,
            0.146339550614357,
            0.03889716416597366,
            -0.027377376332879066,
            0.025416871532797813,
            -0.07137036323547363,
            -0.012092966586351395,
            0.16820773482322693,
            -0.1578540802001953,
            0.1451137661933899,
            -0.055840328335762024,
            -0.02793782204389572,
            0.0005932943895459175,
            0.13055497407913208,
            -0.39012837409973145,
            0.12857702374458313,
            -0.13001662492752075,
            0.1743564009666443,
            -0.09387815743684769
          ]
        ],
        "mean": 0.009819857776165009,
        "std": 0.10627623647451401,
        "min": -0.39012837409973145,
        "max": 0.26501691341400146,
        "norm": 1.0237081050872803
      },
      {
        "epoch": 11,
        "values": [
          [
            0.19176000356674194,
            -0.050677038729190826,
            -0.016339851543307304,
            0.050101347267627716,
            -0.015832364559173584,
            0.060371849685907364,
            -0.027355803176760674,
            -0.03700593113899231,
            0.060687728226184845,
            0.07553602010011673,
            -0.18360289931297302,
            -0.010266304016113281,
            -0.011774524115025997,
            -0.15384183824062347,
            0.09797434508800507,
            0.09807474166154861,
            0.028398074209690094,
            -0.16614121198654175,
            -0.010887539945542812,
            0.04095595329999924,
            0.26550084352493286,
            0.07420562207698822,
            0.08529230207204819,
            0.10232984274625778,
            0.12377431988716125,
            0.030287399888038635,
            -0.02971275895833969,
            -0.14293266832828522,
            0.06844291090965271,
            0.06852715462446213,
            -0.09533482789993286,
            -0.10636603087186813,
            -0.019248703494668007,
            0.04109738767147064,
            -0.0354105569422245,
            0.14748167991638184,
            0.25935354828834534,
            0.025506075471639633,
            -0.05878675356507301,
            -0.0034487720113247633,
            0.006174179259687662,
            0.0775097906589508,
            0.03090641088783741,
            -0.14120937883853912,
            0.16850131750106812,
            -0.0033722305670380592
          ],
          [
            -0.16049882769584656,
            0.010186558589339256,
            -0.06463500112295151,
            -0.0507182851433754,
            0.21584390103816986,
            -0.06757363677024841,
            -0.034377630800008774,
            -0.1481165736913681,
            -0.05911558121442795,
            0.1352824866771698,
            0.05330100283026695,
            0.04554421454668045,
            0.0819271132349968,
            -0.0024723000824451447,
            0.009384213015437126,
            -0.06390708684921265,
            0.033213574439287186,
            -0.03147418797016144,
            0.05340396240353584,
            -0.11005605757236481,
            0.18328620493412018,
            -0.022635167464613914,
            -0.054840993136167526,
            0.14938506484031677,
            0.003070225240662694,
            -0.00157881248742342,
            0.011879845522344112,
            0.08763469755649567,
            0.1574408859014511,
            0.03586110100150108,
            -0.0330156534910202,
            0.03462597727775574,
            -0.06027049571275711,
            -0.014290988445281982,
            0.17602354288101196,
            -0.1700136810541153,
            0.14481690526008606,
            -0.056146129965782166,
            -0.037146925926208496,
            -0.010506575927138329,
            0.13275298476219177,
            -0.3974533975124359,
            0.12857972085475922,
            -0.13002751767635345,
            0.17435669898986816,
            -0.09387814253568649
          ]
        ],
        "mean": 0.012415805831551552,
        "std": 0.1072385385632515,
        "min": -0.3974533975124359,
        "max": 0.26550084352493286,
        "norm": 1.0354667901992798
      },
      {
        "epoch": 12,
        "values": [
          [
            0.19662466645240784,
            -0.050630416721105576,
            -0.019565751776099205,
            0.05510907247662544,
            -0.015891311690211296,
            0.05725859850645065,
            -0.02148410677909851,
            -0.03793760761618614,
            0.06082272529602051,
            0.08267316967248917,
            -0.1839233934879303,
            -0.010655124671757221,
            -0.005863731261342764,
            -0.1532294601202011,
            0.0957290306687355,
            0.10522422194480896,
            0.030999429523944855,
            -0.16033963859081268,
            -0.01716310903429985,
            0.04659348353743553,
            0.26675042510032654,
            0.07186459749937057,
            0.09089303761720657,
            0.10359261184930801,
            0.12201545387506485,
            0.035772453993558884,
            -0.02848203107714653,
            -0.14355288445949554,
            0.07382680475711823,
            0.06928260624408722,
            -0.09481377899646759,
            -0.10044924169778824,
            -0.014758916571736336,
            0.039530303329229355,
            -0.03173203766345978,
            0.14752332866191864,
            0.258594810962677,
            0.025259610265493393,
            -0.05296405777335167,
            -0.0035050222650170326,
            0.007888475432991982,
            0.07813089340925217,
            0.03756127506494522,
            -0.13754433393478394,
            0.17190420627593994,
            -0.006336216349154711
          ],
          [
            -0.16061082482337952,
            0.01379307173192501,
            -0.0708329901099205,
            -0.050937045365571976,
            0.2191401571035385,
            -0.07346383482217789,
            -0.031079281121492386,
            -0.1480163186788559,
            -0.05641710013151169,
            0.139521986246109,
            0.04694163426756859,
            0.04819564148783684,
            0.08787168562412262,
            0.0012096369173377752,
            0.015704168006777763,
            -0.056768372654914856,
            0.03578390181064606,
            -0.027170494198799133,
            0.057881589978933334,
            -0.11056763678789139,
            0.18392831087112427,
            -0.028306148946285248,
            -0.05554930493235588,
            0.1501326709985733,
            -0.002496159402653575,
            0.002505241660401225,
            0.012945560738444328,
            0.09211301058530807,
            0.16148163378238678,
            0.03236263990402222,
            -0.03550724685192108,
            0.040226392447948456,
            -0.055857427418231964,
            -0.01688193529844284,
            0.1793937087059021,
            -0.17246754467487335,
            0.14487676322460175,
            -0.056628644466400146,
            -0.042747337371110916,
            -0.014919647946953773,
            0.13534393906593323,
            -0.4049682319164276,
            0.1286175549030304,
            -0.13001123070716858,
            0.174357071518898,
            -0.0938783660531044
          ]
        ],
        "mean": 0.013574433512985706,
        "std": 0.10809674113988876,
        "min": -0.4049682319164276,
        "max": 0.26675042510032654,
        "norm": 1.0449706315994263
      },
      {
        "epoch": 13,
        "values": [
          [
            0.19800306856632233,
            -0.04987052455544472,
            -0.01956782303750515,
            0.056653764098882675,
            -0.01510294433683157,
            0.05742783844470978,
            -0.01857619173824787,
            -0.03876383602619171,
            0.062191832810640335,
            0.08792150765657425,
            -0.1842575967311859,
            -0.012866230681538582,
            -0.001222895341925323,
            -0.15525972843170166,
            0.09373259544372559,
            0.11561228334903717,
            0.032292235642671585,
            -0.153755784034729,
            -0.023517876863479614,
            0.050211239606142044,
            0.2684195339679718,
            0.07278335839509964,
            0.09449294954538345,
            0.10510857403278351,
            0.12332388758659363,
            0.0431734099984169,
            -0.02779207192361355,
            -0.14326296746730804,
            0.08182166516780853,
            0.06815370172262192,
            -0.09402833133935928,
            -0.09418696910142899,
            -0.01365688443183899,
            0.039080459624528885,
            -0.029298419132828712,
            0.15086877346038818,
            0.2615857720375061,
            0.024860544130206108,
            -0.04870695248246193,
            -0.004288180731236935,
            0.008847948163747787,
            0.07895553857088089,
            0.04548100382089615,
            -0.1363014280796051,
            0.17542612552642822,
            -0.0053706662729382515
          ],
          [
            -0.16092222929000854,
            0.01683685928583145,
            -0.0737592950463295,
            -0.051227129995822906,
            0.22230955958366394,
            -0.07552175223827362,
            -0.03095419891178608,
            -0.1494942009449005,
            -0.05501075088977814,
            0.14088940620422363,
            0.03676864504814148,
            0.049398768693208694,
            0.0943465307354927,
            0.001245907973498106,
            0.021585343405604362,
            -0.04640592634677887,
            0.036641594022512436,
            -0.022326132282614708,
            0.06199154257774353,
            -0.11247248947620392,
            0.18446630239486694,
            -0.029982583597302437,
            -0.05748150125145912,
            0.1509505808353424,
            -0.0037779146805405617,
            0.004203861113637686,
            0.014345691539347172,
            0.09434337168931961,
            0.16274890303611755,
            0.02837415784597397,
            -0.0363302007317543,
            0.04470241814851761,
            -0.05529280751943588,
            -0.019849063828587532,
            0.18243898451328278,
            -0.17012758553028107,
            0.14496731758117676,
            -0.057183511555194855,
            -0.047223348170518875,
            -0.015484262257814407,
            0.13831107318401337,
            -0.4134966731071472,
            0.12862318754196167,
            -0.12998871505260468,
            0.17435738444328308,
            -0.09387857466936111
          ]
        ],
        "mean": 0.01471121795475483,
        "std": 0.1090930923819542,
        "min": -0.4134966731071472,
        "max": 0.2684195339679718,
        "norm": 1.055855393409729
      },
      {
        "epoch": 14,
        "values": [
          [
            0.1891506016254425,
            -0.04843076691031456,
            -0.014512231573462486,
            0.047818638384342194,
            -0.013357662595808506,
            0.06228375807404518,
            -0.025078963488340378,
            -0.03870227187871933,
            0.06395740061998367,
            0.0808853879570961,
            -0.18434841930866241,
            -0.014973772689700127,
            -0.006057725753635168,
            -0.1587158888578415,
            0.09346234053373337,
            0.11210932582616806,
            0.029161259531974792,
            -0.14689533412456512,
            -0.0279860682785511,
            0.042076487094163895,
            0.27037176489830017,
            0.07762376964092255,
            0.08618373423814774,
            0.10670360177755356,
            0.12753459811210632,
            0.03843458369374275,
            -0.0291585735976696,
            -0.1416880041360855,
            0.07928720861673355,
            0.06288327276706696,
            -0.09395378082990646,
            -0.0978318378329277,
            -0.020693743601441383,
            0.041275929659605026,
            -0.03430522605776787,
            0.15643198788166046,
            0.2696305811405182,
            0.024290282279253006,
            -0.05222718417644501,
            -0.004211880266666412,
            0.008094094693660736,
            0.08018116652965546,
            0.0428272970020771,
            -0.14105728268623352,
            0.1771974265575409,
            0.0012685201363638043
          ],
          [
            -0.1631350815296173,
            0.01866844855248928,
            -0.0699700340628624,
            -0.0532844103872776,
            0.22480376064777374,
            -0.07064032554626465,
            -0.03506474569439888,
            -0.15502582490444183,
            -0.056297991424798965,
            0.1354958862066269,
            0.02195028029382229,
            0.04757564142346382,
            0.09108864516019821,
            -0.004631849471479654,
            0.0271039679646492,
            -0.049556802958250046,
            0.03303791582584381,
            -0.01762540638446808,
            0.06513244658708572,
            -0.11613621562719345,
            0.18482153117656708,
            -0.02449069358408451,
            -0.06088997796177864,
            0.15171483159065247,
            0.002528590150177479,
            -0.0003604898229241371,
            0.016009420156478882,
            0.08959190547466278,
            0.15704557299613953,
            0.02494252845644951,
            -0.03748280555009842,
            0.04218031093478203,
            -0.06112752482295036,
            -0.022854294627904892,
            0.17911578714847565,
            -0.16071350872516632,
            0.14478813111782074,
            -0.05767073109745979,
            -0.04470124840736389,
            -0.009649540297687054,
            0.1413162797689438,
            -0.4220234155654907,
            0.128576397895813,
            -0.12999042868614197,
            0.1743575781583786,
            -0.09387887269258499
          ]
        ],
        "mean": 0.013712846674025059,
        "std": 0.10946814715862274,
        "min": -0.4220234155654907,
        "max": 0.27037176489830017,
        "norm": 1.05818772315979
      },
      {
        "epoch": 15,
        "values": [
          [
            0.1770925521850586,
            -0.044821709394454956,
            0.0010446456726640463,
            0.03612249717116356,
            -0.008995790034532547,
            0.07789059728384018,
            -0.028739280998706818,
            -0.03791021555662155,
            0.06698019802570343,
            0.07925289869308472,
            -0.1843681037425995,
            -0.015969716012477875,
            -0.009637614712119102,
            -0.16234789788722992,
            0.09395822882652283,
            0.11382299661636353,
            0.017404627054929733,
            -0.14154352247714996,
            -0.030473480001091957,
            0.0368666909635067,
            0.2728434205055237,
            0.09258105605840683,
            0.08099381625652313,
            0.10834714025259018,
            0.1418365240097046,
            0.04130297526717186,
            -0.032656021416187286,
            -0.13419274985790253,
            0.08461594581604004,
            0.05216262862086296,
            -0.08906488865613937,
            -0.09877999126911163,
            -0.03740696981549263,
            0.04956643655896187,
            -0.039067693054676056,
            0.170393705368042,
            0.28580090403556824,
            0.023566730320453644,
            -0.055468060076236725,
            -0.009067228063941002,
            0.0036267361138015985,
            0.0819818377494812,
            0.04389812424778938,
            -0.15625789761543274,
            0.1765357255935669,
            0.0110502103343606
          ],
          [
            -0.16403675079345703,
            0.017813727259635925,
            -0.053392793983221054,
            -0.05373215302824974,
            0.22565564513206482,
            -0.05346605181694031,
            -0.045242611318826675,
            -0.16668274998664856,
            -0.06512218713760376,
            0.12644053995609283,
            0.004151561763137579,
            0.03882315009832382,
            0.09110341221094131,
            -0.02058054320514202,
            0.03090539015829563,
            -0.04726021736860275,
            0.019899319857358932,
            -0.014193188399076462,
            0.06611301004886627,
            -0.12183040380477905,
            0.18483053147792816,
            -0.008100688457489014,
            -0.06609918922185898,
            0.15219688415527344,
            0.01915283501148224,
            -0.007628774270415306,
            0.017758889123797417,
            0.07666528224945068,
            0.14895236492156982,
            0.022790273651480675,
            -0.036373380571603775,
            0.041604410856962204,
            -0.07561471313238144,
            -0.025557423010468483,
            0.17828431725502014,
            -0.14318743348121643,
            0.14397704601287842,
            -0.05793481692671776,
            -0.04412534832954407,
            0.004837656859308481,
            0.14401941001415253,
            -0.4291025400161743,
            0.12863071262836456,
            -0.13002364337444305,
            0.17435747385025024,
            -0.09387912601232529
          ]
        ],
        "mean": 0.013484437949955463,
        "std": 0.11046496033668518,
        "min": -0.4291025400161743,
        "max": 0.28580090403556824,
        "norm": 1.0674076080322266
      },
      {
        "epoch": 16,
        "values": [
          [
            0.16941772401332855,
            -0.04472814127802849,
            0.007055019028484821,
            0.028354838490486145,
            -0.008751047775149345,
            0.083663210272789,
            -0.03688111528754234,
            -0.03777137026190758,
            0.06793868541717529,
            0.07176901400089264,
            -0.18436364829540253,
            -0.015382855199277401,
            -0.02051382139325142,
            -0.1625930219888687,
            0.09305022656917572,
            0.10466941446065903,
            0.01462346687912941,
            -0.1378605216741562,
            -0.033419568091630936,
            0.0278484970331192,
            0.27337220311164856,
            0.09739383310079575,
            0.0722089633345604,
            0.10876984894275665,
            0.14567241072654724,
            0.032500024884939194,
            -0.03341200575232506,
            -0.13175582885742188,
            0.07626071572303772,
            0.050626713782548904,
            -0.08878982067108154,
            -0.10838072001934052,
            -0.04474160075187683,
            0.05098434165120125,
            -0.04683854430913925,
            0.17156708240509033,
            0.28804510831832886,
            0.023709172382950783,
            -0.06574869155883789,
            -0.004664449952542782,
            0.004039911553263664,
            0.08145397156476974,
            0.03485995531082153,
            -0.15931682288646698,
            0.17776872217655182,
            0.0012626983225345612
          ],
          [
            -0.16318613290786743,
            0.019529279321432114,
            -0.04460764676332474,
            -0.05251495912671089,
            0.22750169038772583,
            -0.0448513999581337,
            -0.051248326897621155,
            -0.1673503816127777,
            -0.07259638607501984,
            0.1182934120297432,
            0.0016290133353322744,
            0.03191437944769859,
            0.08160416036844254,
            -0.023307405412197113,
            0.029014702886343002,
            -0.05628514289855957,
            0.016983505338430405,
            -0.011946992948651314,
            0.06532931327819824,
            -0.12107697129249573,
            0.18521177768707275,
            8.314388105645776e-05,
            -0.06476572901010513,
            0.15259285271167755,
            0.027165953069925308,
            -0.017391232773661613,
            0.02002617157995701,
            0.07093168795108795,
            0.13857586681842804,
            0.01919488050043583,
            -0.02866409532725811,
            0.03295869007706642,
            -0.08035746961832047,
            -0.02816743031144142,
            0.17122651636600494,
            -0.13677997887134552,
            0.14224180579185486,
            -0.05804076045751572,
            -0.03547963500022888,
            0.009580419398844242,
            0.14662937819957733,
            -0.4355687201023102,
            0.12867432832717896,
            -0.1300441026687622,
            0.17435723543167114,
            -0.09387962520122528
          ]
        ],
        "mean": 0.011805564165115356,
        "std": 0.11033743619918823,
        "min": -0.4355687201023102,
        "max": 0.28804510831832886,
        "norm": 1.0643600225448608
      },
      {
        "epoch": 17,
        "values": [
          [
            0.1667950451374054,
            -0.04610181599855423,
            0.01096196286380291,
            0.025660647079348564,
            -0.010204139165580273,
            0.08736878633499146,
            -0.04071863740682602,
            -0.038514092564582825,
            0.06907395273447037,
            0.06798448413610458,
            -0.18448759615421295,
            -0.009508911520242691,
            -0.02419149875640869,
            -0.15754006803035736,
            0.0895121842622757,
            0.10091337561607361,
            0.0145320575684309,
            -0.13508035242557526,
            -0.03571714833378792,
            0.02421378903090954,
            0.2731095850467682,
            0.09973923116922379,
            0.06891269981861115,
            0.10872352123260498,
            0.14738808572292328,
            0.02810101956129074,
            -0.03227130323648453,
            -0.12735822796821594,
            0.0723716989159584,
            0.051865432411432266,
            -0.085212841629982,
            -0.11234971135854721,
            -0.04607722908258438,
            0.05136634036898613,
            -0.05016661807894707,
            0.16905879974365234,
            0.2861182689666748,
            0.024000516161322594,
            -0.06907905638217926,
            -0.003050553612411022,
            0.005347485654056072,
            0.08108474314212799,
            0.03137480467557907,
            -0.15915407240390778,
            0.180084690451622,
            -0.0021310695447027683
          ],
          [
            -0.16160385310649872,
            0.021675987169146538,
            -0.036651622503995895,
            -0.050906307995319366,
            0.22924406826496124,
            -0.03771031275391579,
            -0.05297243222594261,
            -0.16513672471046448,
            -0.0815444141626358,
            0.11643379181623459,
            0.0020193345844745636,
            0.023853113874793053,
            0.0777023434638977,
            -0.021809551864862442,
            0.02416134811937809,
            -0.06000291183590889,
            0.016834253445267677,
            -0.010172962211072445,
            0.06511137634515762,
            -0.1192852035164833,
            0.18513773381710052,
            0.006253268104046583,
            -0.0628451257944107,
            0.15260522067546844,
            0.03232881426811218,
            -0.019814446568489075,
            0.01987423375248909,
            0.068004310131073,
            0.1362849473953247,
            0.011718607507646084,
            -0.017429478466510773,
            0.029992733150720596,
            -0.08005030453205109,
            -0.030491674318909645,
            0.16740773618221283,
            -0.13710913062095642,
            0.1399203985929489,
            -0.05815529078245163,
            -0.03251367807388306,
            0.009273260831832886,
            0.1489536166191101,
            -0.4409952163696289,
            0.12872451543807983,
            -0.1300535649061203,
            0.17435665428638458,
            -0.09387971460819244
          ]
        ],
        "mean": 0.0114509342238307,
        "std": 0.11006712168455124,
        "min": -0.4409952163696289,
        "max": 0.2861182689666748,
        "norm": 1.061424732208252
      },
      {
        "epoch": 18,
        "values": [
          [
            0.16694775223731995,
            -0.045882657170295715,
            0.013982560485601425,
            0.02593320421874523,
            -0.010154602117836475,
            0.09041182696819305,
            -0.03806441277265549,
            -0.04003304988145828,
            0.06953726708889008,
            0.07000472396612167,
            -0.1848781853914261,
            -0.00736110657453537,
            -0.018287161365151405,
            -0.15514026582241058,
            0.08538524806499481,
            0.11334047466516495,
            0.016992459073662758,
            -0.13423238694667816,
            -0.0391622856259346,
            0.027632905170321465,
            0.2732623219490051,
            0.10297521948814392,
            0.07229392230510712,
            0.1088806539773941,
            0.15072888135910034,
            0.03220266476273537,
            -0.02933533489704132,
            -0.12204669415950775,
            0.07848982512950897,
            0.054190438240766525,
            -0.07953893393278122,
            -0.10665422677993774,
            -0.04529305920004845,
            0.05113052576780319,
            -0.0480809360742569,
            0.1702062040567398,
            0.2838219702243805,
            0.024330975487828255,
            -0.062351394444704056,
            -0.006321572698652744,
            0.00631322804838419,
            0.0807386115193367,
            0.04010329395532608,
            -0.15983907878398895,
            0.1822478175163269,
            -0.0022834890987724066
          ],
          [
            -0.1607840657234192,
            0.023598872125148773,
            -0.03364642336964607,
            -0.05019211024045944,
            0.23092977702617645,
            -0.034917209297418594,
            -0.0523625984787941,
            -0.16389890015125275,
            -0.08694944530725479,
            0.1195899024605751,
            0.00017905124695971608,
            0.01897076889872551,
            0.08381792902946472,
            -0.022070294246077538,
            0.019976811483502388,
            -0.04735875874757767,
            0.018557598814368248,
            -0.0086778923869133,
            0.06637559831142426,
            -0.11953260749578476,
            0.1856994777917862,
            0.008725205436348915,
            -0.06342418491840363,
            0.1531558334827423,
            0.03410186246037483,
            -0.014985205605626106,
            0.019329307600855827,
            0.0682346299290657,
            0.14159393310546875,
            0.005757097154855728,
            -0.011524278670549393,
            0.034736741334199905,
            -0.07926873117685318,
            -0.03249673172831535,
            0.16967952251434326,
            -0.13722887635231018,
            0.13742949068546295,
            -0.05831208452582359,
            -0.03725768253207207,
            0.008491689339280128,
            0.15095865726470947,
            -0.4447571039199829,
            0.1287798434495926,
            -0.13005109131336212,
            0.1743571013212204,
            -0.09387939423322678
          ]
        ],
        "mean": 0.012789078056812286,
        "std": 0.1103583574295044,
        "min": -0.4447571039199829,
        "max": 0.2838219702243805,
        "norm": 1.065604329109192
      },
      {
        "epoch": 19,
        "values": [
          [
            0.16696253418922424,
            -0.04617856442928314,
            0.012552413158118725,
            0.026049824431538582,
            -0.010583109222352505,
            0.08891918510198593,
            -0.03587963432073593,
            -0.041403334587812424,
            0.07086259126663208,
            0.07155036926269531,
            -0.1852211058139801,
            -0.0048744771629571915,
            -0.01616772636771202,
            -0.1525891125202179,
            0.08383235335350037,
            0.11693979799747467,
            0.017095161601901054,
            -0.13152483105659485,
            -0.0406930111348629,
            0.028980547562241554,
            0.273606538772583,
            0.10155120491981506,
            0.07372763752937317,
            0.10924940556287766,
            0.1494390070438385,
            0.0345887690782547,
            -0.026766594499349594,
            -0.1210714802145958,
            0.08187142759561539,
            0.0568966343998909,
            -0.07782851904630661,
            -0.10474801063537598,
            -0.042282041162252426,
            0.049787737429142,
            -0.04748368635773659,
            0.17006666958332062,
            0.28145742416381836,
            0.02461431920528412,
            -0.060201603919267654,
            -0.010864813812077045,
            0.007062186021357775,
            0.0801788717508316,
            0.043108824640512466,
            -0.1612548679113388,
            0.1820535808801651,
            -0.005228227935731411
          ],
          [
            -0.15976811945438385,
            0.02551957778632641,
            -0.03706834837794304,
            -0.049129948019981384,
            0.2326195240020752,
            -0.037949252873659134,
            -0.054203689098358154,
            -0.16525107622146606,
            -0.08598189055919647,
            0.1193765327334404,
            -0.005743614863604307,
            0.019494200125336647,
            0.08610256761312485,
            -0.024126965552568436,
            0.019533298909664154,
            -0.043675150722265244,
            0.018946776166558266,
            -0.006955081596970558,
            0.06722908467054367,
            -0.1189608946442604,
            0.18672682344913483,
            0.006051606498658657,
            -0.06291154772043228,
            0.15408219397068024,
            0.03156890347599983,
            -0.014453483745455742,
            0.0212707556784153,
            0.06644836813211441,
            0.14287908375263214,
            0.00549303600564599,
            -0.013650668784976006,
            0.037090469151735306,
            -0.08059053868055344,
            -0.03423332795500755,
            0.17015637457370758,
            -0.1380738765001297,
            0.13523949682712555,
            -0.05845964699983597,
            -0.03961141034960747,
            0.009813500568270683,
            0.15269525349140167,
            -0.44781598448753357,
            0.12890177965164185,
            -0.13008975982666016,
            0.17435693740844727,
            -0.09387935698032379
          ]
        ],
        "mean": 0.012925789691507816,
        "std": 0.11052095890045166,
        "min": -0.44781598448753357,
        "max": 0.28145742416381836,
        "norm": 1.067305088043213
      },
      {
        "epoch": 20,
        "values": [
          [
            0.15999670326709747,
            -0.04324124753475189,
            0.014485095627605915,
            0.019245484843850136,
            -0.007845418527722359,
            0.09078902006149292,
            -0.038372982293367386,
            -0.04330503195524216,
            0.0708935409784317,
            0.0702950581908226,
            -0.1858196258544922,
            -0.004958631470799446,
            -0.019048579037189484,
            -0.1524413526058197,
            0.08200909197330475,
            0.11510385572910309,
            0.02299685962498188,
            -0.13053332269191742,
            -0.04449562355875969,
            0.020426495000720024,
            0.27489715814590454,
            0.10432974994182587,
            0.06480973213911057,
            0.1099604144692421,
            0.15221478044986725,
            0.03167466074228287,
            -0.022789593786001205,
            -0.1161009669303894,
            0.0804537832736969,
            0.05945386365056038,
            -0.0732630118727684,
            -0.1073526069521904,
            -0.04154083505272865,
            0.049351491034030914,
            -0.05047188326716423,
            0.1765739619731903,
            0.2819206714630127,
            0.0250523891299963,
            -0.06367816030979156,
            -0.017700815573334694,
            0.006950641516596079,
            0.07913587987422943,
            0.04121599346399307,
            -0.16496527194976807,
            0.18246042728424072,
            -0.007234071381390095
          ],
          [
            -0.16744177043437958,
            0.026537207886576653,
            -0.043951477855443954,
            -0.056450601667165756,
            0.23413130640983582,
            -0.042281609028577805,
            -0.058126550167798996,
            -0.1682279258966446,
            -0.08524678647518158,
            0.11237989366054535,
            -0.01085110753774643,
            0.018959252163767815,
            0.08381524682044983,
            -0.030472407117486,
            0.017682688310742378,
            -0.04569660872220993,
            0.024958159774541855,
            -0.005508131347596645,
            0.0696888267993927,
            -0.12585774064064026,
            0.18865719437599182,
            0.004104815423488617,
            -0.06933021545410156,
            0.1556554138660431,
            0.03083725832402706,
            -0.02104063518345356,
            0.024911444634199142,
            0.06691695004701614,
            0.13489632308483124,
            0.006772724911570549,
            -0.011109298095107079,
            0.03616916015744209,
            -0.08837606757879257,
            -0.035737693309783936,
            0.16902819275856018,
            -0.13097307085990906,
            0.13371197879314423,
            -0.05851484090089798,
            -0.038690101355314255,
            0.017599036917090416,
            0.15419964492321014,
            -0.45279791951179504,
            0.12894244492053986,
            -0.13014568388462067,
            0.17435632646083832,
            -0.09387923032045364
          ]
        ],
        "mean": 0.011910236440598965,
        "std": 0.11121812462806702,
        "min": -0.45279791951179504,
        "max": 0.2819206714630127,
        "norm": 1.0728662014007568
      }
    ],
    "g_var_1_mode1_quantum_params:0": [
      {
        "epoch": 0,
        "values": [
          -0.23346805572509766,
          0.12196502089500427,
          0.20556192100048065,
          0.17379014194011688
        ],
        "mean": 0.06696225702762604,
        "std": 0.17600123584270477,
        "min": -0.23346805572509766,
        "max": 0.20556192100048065,
        "norm": 0.37661853432655334
      },
      {
        "epoch": 1,
        "values": [
          -0.2112451195716858,
          0.14481209218502045,
          0.22151251137256622,
          0.15023697912693024
        ],
        "mean": 0.07632911205291748,
        "std": 0.16876718401908875,
        "min": -0.2112451195716858,
        "max": 0.22151251137256622,
        "norm": 0.37045106291770935
      },
      {
        "epoch": 2,
        "values": [
          -0.19386328756809235,
          0.1612401157617569,
          0.20960837602615356,
          0.13045339286327362
        ],
        "mean": 0.07685965299606323,
        "std": 0.15882810950279236,
        "min": -0.19386328756809235,
        "max": 0.20960837602615356,
        "norm": 0.3528953194618225
      },
      {
        "epoch": 3,
        "values": [
          -0.17901523411273956,
          0.16725857555866241,
          0.19831687211990356,
          0.11790494620800018
        ],
        "mean": 0.07611629366874695,
        "std": 0.15006522834300995,
        "min": -0.17901523411273956,
        "max": 0.19831687211990356,
        "norm": 0.3365308940410614
      },
      {
        "epoch": 4,
        "values": [
          -0.17269174754619598,
          0.16331712901592255,
          0.20113685727119446,
          0.11176285892724991
        ],
        "mean": 0.07588127255439758,
        "std": 0.14697791635990143,
        "min": -0.17269174754619598,
        "max": 0.20113685727119446,
        "norm": 0.3308200240135193
      },
      {
        "epoch": 5,
        "values": [
          -0.16407814621925354,
          0.16290132701396942,
          0.19803157448768616,
          0.10945125669240952
        ],
        "mean": 0.07657650113105774,
        "std": 0.14247694611549377,
        "min": -0.16407814621925354,
        "max": 0.19803157448768616,
        "norm": 0.3235035538673401
      },
      {
        "epoch": 6,
        "values": [
          -0.16005481779575348,
          0.16232365369796753,
          0.19816367328166962,
          0.10878729075193405
        ],
        "mean": 0.07730495184659958,
        "std": 0.14068208634853363,
        "min": -0.16005481779575348,
        "max": 0.19816367328166962,
        "norm": 0.3210452198982239
      },
      {
        "epoch": 7,
        "values": [
          -0.15612369775772095,
          0.16081543266773224,
          0.19816744327545166,
          0.10885511338710785
        ],
        "mean": 0.0779285728931427,
        "std": 0.13880249857902527,
        "min": -0.15612369775772095,
        "max": 0.19816744327545166,
        "norm": 0.31836456060409546
      },
      {
        "epoch": 8,
        "values": [
          -0.15466195344924927,
          0.15955697000026703,
          0.19951625168323517,
          0.10909302532672882
        ],
        "mean": 0.07837606966495514,
        "std": 0.13830721378326416,
        "min": -0.15466195344924927,
        "max": 0.19951625168323517,
        "norm": 0.31794145703315735
      },
      {
        "epoch": 9,
        "values": [
          -0.15940901637077332,
          0.1570068746805191,
          0.20580068230628967,
          0.10913534462451935
        ],
        "mean": 0.0781334713101387,
        "std": 0.14133955538272858,
        "min": -0.15940901637077332,
        "max": 0.20580068230628967,
        "norm": 0.3229966461658478
      },
      {
        "epoch": 10,
        "values": [
          -0.1589183807373047,
          0.15397121012210846,
          0.20853406190872192,
          0.10919095575809479
        ],
        "mean": 0.07819446176290512,
        "std": 0.14134515821933746,
        "min": -0.1589183807373047,
        "max": 0.20853406190872192,
        "norm": 0.32306548953056335
      },
      {
        "epoch": 11,
        "values": [
          -0.15144291520118713,
          0.14618518948554993,
          0.21025264263153076,
          0.1091884970664978
        ],
        "mean": 0.07854585349559784,
        "std": 0.13761864602565765,
        "min": -0.15144291520118713,
        "max": 0.21025264263153076,
        "norm": 0.3169122338294983
      },
      {
        "epoch": 12,
        "values": [
          -0.14764030277729034,
          0.14577904343605042,
          0.20911362767219543,
          0.10894019156694412
        ],
        "mean": 0.07904814183712006,
        "std": 0.13569380342960358,
        "min": -0.14764030277729034,
        "max": 0.20911362767219543,
        "norm": 0.31407907605171204
      },
      {
        "epoch": 13,
        "values": [
          -0.14422909915447235,
          0.14910557866096497,
          0.20612257719039917,
          0.1085335984826088
        ],
        "mean": 0.0798831656575203,
        "std": 0.13395455479621887,
        "min": -0.14422909915447235,
        "max": 0.20612257719039917,
        "norm": 0.311930388212204
      },
      {
        "epoch": 14,
        "values": [
          -0.14713606238365173,
          0.15809613466262817,
          0.20305952429771423,
          0.10785480588674545
        ],
        "mean": 0.08046860247850418,
        "std": 0.13565438985824585,
        "min": -0.14713606238365173,
        "max": 0.20305952429771423,
        "norm": 0.31545084714889526
      },
      {
        "epoch": 15,
        "values": [
          -0.14850713312625885,
          0.17297837138175964,
          0.19576667249202728,
          0.10719306766986847
        ],
        "mean": 0.08185774087905884,
        "std": 0.1369197517633438,
        "min": -0.14850713312625885,
        "max": 0.19576667249202728,
        "norm": 0.3190467655658722
      },
      {
        "epoch": 16,
        "values": [
          -0.15597014129161835,
          0.17548145353794098,
          0.19880282878875732,
          0.10717269033193588
        ],
        "mean": 0.08137170970439911,
        "std": 0.14110594987869263,
        "min": -0.15597014129161835,
        "max": 0.19880282878875732,
        "norm": 0.3257744312286377
      },
      {
        "epoch": 17,
        "values": [
          -0.15914157032966614,
          0.17099305987358093,
          0.20708197355270386,
          0.106993667781353
        ],
        "mean": 0.08148178458213806,
        "std": 0.14347310364246368,
        "min": -0.15914157032966614,
        "max": 0.20708197355270386,
        "norm": 0.32999280095100403
      },
      {
        "epoch": 18,
        "values": [
          -0.15624397993087769,
          0.16993847489356995,
          0.20636144280433655,
          0.10754858702421188
        ],
        "mean": 0.08190113306045532,
        "std": 0.14196111261844635,
        "min": -0.15624397993087769,
        "max": 0.20636144280433655,
        "norm": 0.32778501510620117
      },
      {
        "epoch": 19,
        "values": [
          -0.1551567167043686,
          0.17046862840652466,
          0.20485037565231323,
          0.10814033448696136
        ],
        "mean": 0.08207565546035767,
        "std": 0.1412847489118576,
        "min": -0.1551567167043686,
        "max": 0.20485037565231323,
        "norm": 0.32678917050361633
      },
      {
        "epoch": 20,
        "values": [
          -0.1559920459985733,
          0.1804918497800827,
          0.19192011654376984,
          0.10996372997760773
        ],
        "mean": 0.08159591257572174,
        "std": 0.1407165676355362,
        "min": -0.1559920459985733,
        "max": 0.19192011654376984,
        "norm": 0.3253247141838074
      }
    ],
    "g_var_2_mode2_quantum_params:0": [
      {
        "epoch": 0,
        "values": [
          -0.337083637714386,
          -0.4633546769618988,
          -0.6562204360961914,
          0.34151142835617065
        ],
        "mean": -0.278786838054657,
        "std": 0.3757292628288269,
        "min": -0.6562204360961914,
        "max": 0.34151142835617065,
        "norm": 0.9357233643531799
      },
      {
        "epoch": 1,
        "values": [
          -0.3149048388004303,
          -0.44064006209373474,
          -0.6401335597038269,
          0.31795817613601685
        ],
        "mean": -0.26943010091781616,
        "std": 0.3584085702896118,
        "min": -0.6401335597038269,
        "max": 0.31795817613601685,
        "norm": 0.8967703580856323
      },
      {
        "epoch": 2,
        "values": [
          -0.2973654866218567,
          -0.42502138018608093,
          -0.6515188813209534,
          0.29817503690719604
        ],
        "mean": -0.26893264055252075,
        "std": 0.35112515091896057,
        "min": -0.6515188813209534,
        "max": 0.29817503690719604,
        "norm": 0.8845646381378174
      },
      {
        "epoch": 3,
        "values": [
          -0.28229910135269165,
          -0.4187859892845154,
          -0.663439929485321,
          0.2856385409832001
        ],
        "mean": -0.2697216272354126,
        "std": 0.3485030233860016,
        "min": -0.663439929485321,
        "max": 0.2856385409832001,
        "norm": 0.8813718557357788
      },
      {
        "epoch": 4,
        "values": [
          -0.2768016457557678,
          -0.4228461682796478,
          -0.6602175831794739,
          0.2794918715953827
        ],
        "mean": -0.2700933814048767,
        "std": 0.345550000667572,
        "min": -0.6602175831794739,
        "max": 0.2794918715953827,
        "norm": 0.8771664500236511
      },
      {
        "epoch": 5,
        "values": [
          -0.26889950037002563,
          -0.42302265763282776,
          -0.6630921959877014,
          0.27717313170433044
        ],
        "mean": -0.2694602906703949,
        "std": 0.34544748067855835,
        "min": -0.6630921959877014,
        "max": 0.27717313170433044,
        "norm": 0.8762255907058716
      },
      {
        "epoch": 6,
        "values": [
          -0.2667296230792999,
          -0.42018550634384155,
          -0.6648283004760742,
          0.27652090787887573
        ],
        "mean": -0.2688056230545044,
        "std": 0.34537485241889954,
        "min": -0.6648283004760742,
        "max": 0.27652090787887573,
        "norm": 0.875306248664856
      },
      {
        "epoch": 7,
        "values": [
          -0.262545108795166,
          -0.4200012981891632,
          -0.6666921377182007,
          0.2766287624835968
        ],
        "mean": -0.2681524455547333,
        "std": 0.345944344997406,
        "min": -0.6666921377182007,
        "max": 0.2766287624835968,
        "norm": 0.875404417514801
      },
      {
        "epoch": 8,
        "values": [
          -0.2587732672691345,
          -0.4183172881603241,
          -0.6699289083480835,
          0.2770107686519623
        ],
        "mean": -0.26750215888023376,
        "std": 0.34686562418937683,
        "min": -0.6699289083480835,
        "max": 0.2770107686519623,
        "norm": 0.8760665655136108
      },
      {
        "epoch": 9,
        "values": [
          -0.2622298300266266,
          -0.420687198638916,
          -0.6644198894500732,
          0.27708005905151367
        ],
        "mean": -0.26756420731544495,
        "std": 0.34554553031921387,
        "min": -0.6644198894500732,
        "max": 0.27708005905151367,
        "norm": 0.874053418636322
      },
      {
        "epoch": 10,
        "values": [
          -0.2619706988334656,
          -0.4284766614437103,
          -0.6573484539985657,
          0.276940256357193
        ],
        "mean": -0.26771387457847595,
        "std": 0.3443620502948761,
        "min": -0.6573484539985657,
        "max": 0.276940256357193,
        "norm": 0.8723667860031128
      },
      {
        "epoch": 11,
        "values": [
          -0.25255638360977173,
          -0.4380611777305603,
          -0.6544423699378967,
          0.27688834071159363
        ],
        "mean": -0.267042875289917,
        "std": 0.34474506974220276,
        "min": -0.6544423699378967,
        "max": 0.27688834071159363,
        "norm": 0.8721492290496826
      },
      {
        "epoch": 12,
        "values": [
          -0.249275341629982,
          -0.4414660930633545,
          -0.6532419323921204,
          0.27665069699287415
        ],
        "mean": -0.26683318614959717,
        "std": 0.3447794020175934,
        "min": -0.6532419323921204,
        "max": 0.27665069699287415,
        "norm": 0.8719467520713806
      },
      {
        "epoch": 13,
        "values": [
          -0.24644732475280762,
          -0.4410099387168884,
          -0.654449462890625,
          0.2763243615627289
        ],
        "mean": -0.26639559864997864,
        "std": 0.34497058391571045,
        "min": -0.654449462890625,
        "max": 0.2763243615627289,
        "norm": 0.8717139959335327
      },
      {
        "epoch": 14,
        "values": [
          -0.24930158257484436,
          -0.43357789516448975,
          -0.6567432284355164,
          0.27564001083374023
        ],
        "mean": -0.26599568128585815,
        "std": 0.34438908100128174,
        "min": -0.6567432284355164,
        "max": 0.27564001083374023,
        "norm": 0.8703046441078186
      },
      {
        "epoch": 15,
        "values": [
          -0.24916651844978333,
          -0.41702204942703247,
          -0.6669668555259705,
          0.2749718129634857
        ],
        "mean": -0.26454588770866394,
        "std": 0.34514760971069336,
        "min": -0.6669668555259705,
        "max": 0.2749718129634857,
        "norm": 0.8697388172149658
      },
      {
        "epoch": 16,
        "values": [
          -0.25512173771858215,
          -0.41059446334838867,
          -0.6693540215492249,
          0.27514973282814026
        ],
        "mean": -0.26498010754585266,
        "std": 0.3451663553714752,
        "min": -0.6693540215492249,
        "max": 0.27514973282814026,
        "norm": 0.8702971339225769
      },
      {
        "epoch": 17,
        "values": [
          -0.25878262519836426,
          -0.4082399606704712,
          -0.6697483658790588,
          0.27553591132164
        ],
        "mean": -0.26530876755714417,
        "std": 0.3451652526855469,
        "min": -0.6697483658790588,
        "max": 0.27553591132164,
        "norm": 0.8706958293914795
      },
      {
        "epoch": 18,
        "values": [
          -0.25687235593795776,
          -0.4065757989883423,
          -0.6733275651931763,
          0.2763262689113617
        ],
        "mean": -0.26511237025260925,
        "std": 0.3463651239871979,
        "min": -0.6733275651931763,
        "max": 0.2763262689113617,
        "norm": 0.87236088514328
      },
      {
        "epoch": 19,
        "values": [
          -0.25665482878685,
          -0.40738484263420105,
          -0.6724848747253418,
          0.276652067899704
        ],
        "mean": -0.2649680972099304,
        "std": 0.34632858633995056,
        "min": -0.6724848747253418,
        "max": 0.276652067899704,
        "norm": 0.8721275329589844
      },
      {
        "epoch": 20,
        "values": [
          -0.2583036422729492,
          -0.40275028347969055,
          -0.6785761713981628,
          0.27770230174064636
        ],
        "mean": -0.26548194885253906,
        "std": 0.34806254506111145,
        "min": -0.6785761713981628,
        "max": 0.27770230174064636,
        "norm": 0.875507116317749
      }
    ]
  },
  "discriminator": {
    "d_var_0_pure_quantum_discriminator_weights:0": [
      {
        "epoch": 0,
        "values": [
          [
            -0.0267521683126688,
            -0.006651194300502539,
            0.015500660054385662,
            -0.03228014335036278,
            0.03939100727438927,
            -0.010170417837798595,
            0.11380258947610855,
            0.06534918397665024,
            -0.03526369482278824,
            3.141092383884825e-05,
            -0.08849623054265976,
            -0.06951271742582321,
            -0.005826620850712061,
            0.2004980593919754
          ],
          [
            0.08634127676486969,
            0.005126586649566889,
            -0.2940238416194916,
            0.1381474733352661,
            0.17671307921409607,
            -0.008711480535566807,
            0.09725995361804962,
            -0.0004105836560484022,
            -0.013695605099201202,
            0.041180405765771866,
            -0.04029477387666702,
            0.12899792194366455,
            -0.08374809473752975,
            0.07989289611577988
          ]
        ],
        "mean": 0.016871249303221703,
        "std": 0.09532136470079422,
        "min": -0.2940238416194916,
        "max": 0.2004980593919754,
        "norm": 0.512232780456543
      },
      {
        "epoch": 1,
        "values": [
          [
            -0.050521135330200195,
            0.0176641084253788,
            -0.006585313007235527,
            -0.011650432832539082,
            0.06348669528961182,
            -0.03391299769282341,
            0.13789759576320648,
            0.04238399490714073,
            -0.01520165242254734,
            0.01954180747270584,
            -0.10389675945043564,
            -0.06474196165800095,
            -0.028709333389997482,
            0.17665518820285797
          ],
          [
            0.06272142380475998,
            -0.01847032457590103,
            -0.27011653780937195,
            0.11475998908281326,
            0.20082156360149384,
            -0.03232837840914726,
            0.12114914506673813,
            -0.00041048918501473963,
            -0.012804674915969372,
            0.061198581010103226,
            -0.040294598788022995,
            0.13474668562412262,
            -0.08374781906604767,
            0.07988202571868896
          ]
        ],
        "mean": 0.016411300748586655,
        "std": 0.09499424695968628,
        "min": -0.27011653780937195,
        "max": 0.20082156360149384,
        "norm": 0.510108470916748
      },
      {
        "epoch": 2,
        "values": [
          [
            -0.07582952082157135,
            0.044687286019325256,
            -0.005899934098124504,
            -0.018202081322669983,
            0.0879918709397316,
            -0.059018053114414215,
            0.16470396518707275,
            0.02629544772207737,
            0.0003623762750066817,
            0.03950163722038269,
            -0.11545665562152863,
            -0.053100839257240295,
            -0.04450375586748123,
            0.1545974314212799
          ],
          [
            0.03829357773065567,
            -0.043062105774879456,
            -0.2436123937368393,
            0.08882595598697662,
            0.22543562948703766,
            -0.056898005306720734,
            0.1476624608039856,
            -0.0004105644184164703,
            -0.010980877093970776,
            0.08150726556777954,
            -0.04029426723718643,
            0.14485973119735718,
            -0.08374768495559692,
            0.07993022352457047
          ]
        ],
        "mean": 0.016915645450353622,
        "std": 0.09854885190725327,
        "min": -0.2436123937368393,
        "max": 0.22543562948703766,
        "norm": 0.5290977358818054
      },
      {
        "epoch": 3,
        "values": [
          [
            -0.10534857213497162,
            0.07602196931838989,
            0.02301030047237873,
            -0.047319673001766205,
            0.11216159164905548,
            -0.08853144943714142,
            0.19586925208568573,
            0.04485500976443291,
            -0.009397394023835659,
            0.05853645130991936,
            -0.11819113045930862,
            -0.04455541446805,
            -0.025901881977915764,
            0.15065401792526245
          ],
          [
            0.010119812563061714,
            -0.0695742666721344,
            -0.2124742567539215,
            0.05779658257961273,
            0.25053974986076355,
            -0.0858473926782608,
            0.17877687513828278,
            -0.00041216795216314495,
            -0.009141364134848118,
            0.1008906364440918,
            -0.040293920785188675,
            0.15171225368976593,
            -0.08374897390604019,
            0.08020319044589996
          ]
        ],
        "mean": 0.019657494500279427,
        "std": 0.10629092156887054,
        "min": -0.2124742567539215,
        "max": 0.25053974986076355,
        "norm": 0.571976363658905
      },
      {
        "epoch": 4,
        "values": [
          [
            -0.13884049654006958,
            0.11194825917482376,
            0.05869397893548012,
            -0.08280190825462341,
            0.12858639657497406,
            -0.12279937416315079,
            0.2317619025707245,
            0.07962793111801147,
            -0.03755626827478409,
            0.08340058475732803,
            -0.09618708491325378,
            -0.026045039296150208,
            0.008690753020346165,
            0.18081806600093842
          ],
          [
            -0.022169271484017372,
            -0.0812918096780777,
            -0.176950603723526,
            0.022138137370347977,
            0.2750368118286133,
            -0.11960390210151672,
            0.2141505628824234,
            -0.0004096702905371785,
            -0.006883995141834021,
            0.12554344534873962,
            -0.04029422625899315,
            0.17270120978355408,
            -0.08374883234500885,
            0.08032969385385513
          ]
        ],
        "mean": 0.026351619511842728,
        "std": 0.11964819580316544,
        "min": -0.176950603723526,
        "max": 0.2750368118286133,
        "norm": 0.6482921838760376
      },
      {
        "epoch": 5,
        "values": [
          [
            -0.1749042421579361,
            0.15195782482624054,
            0.09826161712408066,
            -0.12282446026802063,
            0.12084153294563293,
            -0.16106049716472626,
            0.27137666940689087,
            0.11968891322612762,
            -0.06093009561300278,
            0.10211167484521866,
            -0.08174052834510803,
            -0.024727262556552887,
            0.048635683953762054,
            0.2203134000301361
          ],
          [
            -0.05588137358427048,
            -0.04963372275233269,
            -0.13762296736240387,
            -0.01720333658158779,
            0.2994731366634369,
            -0.15562745928764343,
            0.25335726141929626,
            -0.0003749265451915562,
            0.0015609939582645893,
            0.14398904144763947,
            -0.04029390588402748,
            0.18400982022285461,
            -0.08372365683317184,
            0.08079937845468521
          ]
        ],
        "mean": 0.03320815786719322,
        "std": 0.1364169865846634,
        "min": -0.1749042421579361,
        "max": 0.2994731366634369,
        "norm": 0.7429310083389282
      },
      {
        "epoch": 6,
        "values": [
          [
            -0.2108398973941803,
            0.19462850689888,
            0.13832829892635345,
            -0.16538864374160767,
            0.08860878646373749,
            -0.20118896663188934,
            0.31357845664024353,
            0.16181953251361847,
            -0.08748427033424377,
            0.12004052847623825,
            -0.06589138507843018,
            -0.02266179956495762,
            0.08922343701124191,
            0.26316046714782715
          ],
          [
            -0.08944762498140335,
            -0.007795556448400021,
            -0.09709922224283218,
            -0.05664554983377457,
            0.3187386691570282,
            -0.1905011534690857,
            0.2951769232749939,
            -0.00032463748357258737,
            0.0004261797876097262,
            0.16167639195919037,
            -0.040293384343385696,
            0.20339825749397278,
            -0.08369161188602448,
            0.08129420131444931
          ]
        ],
        "mean": 0.039673030376434326,
        "std": 0.15700198709964752,
        "min": -0.2108398973941803,
        "max": 0.3187386691570282,
        "norm": 0.8568897843360901
      },
      {
        "epoch": 7,
        "values": [
          [
            -0.2373252511024475,
            0.23706559836864471,
            0.1718030720949173,
            -0.20250606536865234,
            0.05589497461915016,
            -0.2357608675956726,
            0.3570960760116577,
            0.19611932337284088,
            -0.09752655029296875,
            0.11510644108057022,
            -0.08394721150398254,
            -0.042978525161743164,
            0.1046011820435524,
            0.30620431900024414
          ],
          [
            -0.10330469161272049,
            0.011292552575469017,
            -0.06008628010749817,
            -0.0840827003121376,
            0.31662869453430176,
            -0.20445431768894196,
            0.33590152859687805,
            -0.0002576542610768229,
            -9.781945846043527e-05,
            0.1574910283088684,
            -0.04029307886958122,
            0.2063794881105423,
            -0.08368294686079025,
            0.07798049598932266
          ]
        ],
        "mean": 0.04190217703580856,
        "std": 0.1745811253786087,
        "min": -0.2373252511024475,
        "max": 0.3570960760116577,
        "norm": 0.950032651424408
      },
      {
        "epoch": 8,
        "values": [
          [
            -0.25167906284332275,
            0.27412697672843933,
            0.19759666919708252,
            -0.22273032367229462,
            0.03172403201460838,
            -0.25850242376327515,
            0.3962046802043915,
            0.22558242082595825,
            -0.0925508588552475,
            0.09429048001766205,
            -0.1136230081319809,
            -0.07008252292871475,
            0.1060088723897934,
            0.3438723087310791
          ],
          [
            -0.08355394750833511,
            -0.013475103303790092,
            -0.01710185408592224,
            -0.08567804843187332,
            0.29654836654663086,
            -0.19103194773197174,
            0.3803804814815521,
            -0.0004241505521349609,
            3.621804353315383e-06,
            0.13667075335979462,
            -0.04029298573732376,
            0.19678446650505066,
            -0.0838228166103363,
            0.07966787368059158
          ]
        ],
        "mean": 0.04410403594374657,
        "std": 0.1860736906528473,
        "min": -0.25850242376327515,
        "max": 0.3962046802043915,
        "norm": 1.0118894577026367
      },
      {
        "epoch": 9,
        "values": [
          [
            -0.2535029947757721,
            0.29948681592941284,
            0.2220611572265625,
            -0.22447335720062256,
            0.01801394112408161,
            -0.2645115852355957,
            0.42663151025772095,
            0.26338085532188416,
            -0.08482534438371658,
            0.069546639919281,
            -0.13662904500961304,
            -0.09384038299322128,
            0.1384391486644745,
            0.36271047592163086
          ],
          [
            -0.058206021785736084,
            -0.04168253391981125,
            0.02892450802028179,
            -0.06154122203588486,
            0.28309953212738037,
            -0.1769021451473236,
            0.4262118637561798,
            -0.00046687753638252616,
            5.416118074208498e-05,
            0.11426015198230743,
            -0.04029294475913048,
            0.18331383168697357,
            -0.08387148380279541,
            0.07731199264526367
          ]
        ],
        "mean": 0.049739304929971695,
        "std": 0.1946084350347519,
        "min": -0.2645115852355957,
        "max": 0.42663151025772095,
        "norm": 1.0628737211227417
      },
      {
        "epoch": 10,
        "values": [
          [
            -0.2455483078956604,
            0.3149058222770691,
            0.2427947223186493,
            -0.213479146361351,
            0.014839855954051018,
            -0.2557298243045807,
            0.4504891335964203,
            0.29940128326416016,
            -0.07648689299821854,
            0.045277997851371765,
            -0.15464942157268524,
            -0.11207184940576553,
            0.17424657940864563,
            0.3636401295661926
          ],
          [
            -0.04689396545290947,
            -0.06509511917829514,
